24 100
dna -0.0005385255 0.0002430238 0.005111818 0.009016951 -0.009293036 -0.007109866 0.0064572324 0.008987154 -0.0050192317 -0.0037659889 0.0073785 -0.0015431087 -0.0045221853 0.006557529 -0.004854595 -0.0018278129 0.002881375 0.0010002495 -0.00829578 -0.009462763 0.007312361 0.0050688535 0.0067577288 0.0007685764 0.006347226 -0.003397316 -0.0009421973 0.0057741464 -0.007532499 -0.0039303782 -0.0075064874 -0.0009439946 0.009533595 -0.0073319245 -0.002333888 -0.0019326513 0.0080786925 -0.005930193 3.549824e-05 -0.00475331 -0.0095964745 0.005000012 -0.008770563 -0.0043735923 -2.9246534e-05 -0.00030931013 -0.007669701 0.009599569 0.004982613 0.009233704 -0.008148657 0.004488859 -0.0041414667 0.00081141765 0.008487031 -0.00446156 0.0045125154 -0.006793622 -0.0035560841 0.009394251 -0.0015774865 0.00032431752 -0.004129968 -0.0076763057 -0.0015165819 0.0024841889 -0.00088440755 0.0055526863 -0.0027446826 0.002259023 0.0054701897 0.008356409 -0.0014508999 -0.009201209 0.004375452 0.00058271736 0.0074576377 -0.00080706284 -0.0026372937 -0.008752899 -0.00087625836 0.00282087 0.005398569 0.0070530027 -0.0057170955 0.0018605916 0.006099475 -0.0048024287 -0.003104349 0.0067992285 0.0016360026 0.00019302641 0.00348545 0.00021818833 0.009630539 0.0050670514 -0.008908632 -0.007042295 0.0009007676 0.0063867364
from -0.00861988 0.0036778022 0.005193427 0.005744547 0.0074751326 -0.0061739217 0.0011082628 0.0060625207 -0.0028567386 -0.006184132 -0.00041290926 -0.008384168 -0.0055893976 0.007104685 0.003362318 0.007228353 0.0068033817 0.007533677 -0.003792071 -0.000581891 0.0023577819 -0.0045196284 0.008395244 -0.009858517 0.006761404 0.0029261683 -0.004930935 0.0043925527 -0.0017370671 0.006713542 0.009974645 -0.0043735756 -0.0006050642 -0.005716478 0.003858548 0.002799571 0.00690247 0.00610934 0.009526547 0.009269763 0.007910428 -0.007008808 -0.00916451 -0.00033672128 -0.0030898354 0.007890073 0.005923819 -0.001552973 0.001516021 0.0017856265 0.007822941 -0.009514211 -0.00020886083 0.0034666678 -0.00094713847 0.008384139 0.009009283 0.0065234327 -0.0007208324 0.007705209 -0.00853289 0.0032079336 -0.004625999 -0.0050743804 0.0035901158 0.005388813 0.007766254 -0.005744939 0.0074327383 0.006626378 -0.003704473 -0.008735958 0.005445474 0.0065230317 -0.000784768 -0.006700798 -0.007075852 -0.002488528 0.0051543443 -0.0036620772 -0.00938257 0.003815971 0.004890136 -0.0064404616 0.0012033634 -0.0020763231 2.994902e-05 -0.0098790005 0.002700701 -0.004756241 0.0011076172 -0.0015674155 0.0022046466 -0.00787344 -0.0027070795 0.002668326 0.0053478787 -0.002396734 -0.009512201 0.0045024394
mtdna 8.645293e-05 0.003076037 -0.006815487 -0.0013743688 0.0076927417 0.0073529496 -0.0036715195 0.0026677884 -0.008309281 0.00619759 -0.00463892 -0.0031715294 0.009313415 0.00088058383 0.0074962615 -0.00608139 0.005167896 0.009930803 -0.008471472 -0.0051321597 -0.007057574 -0.0048644566 -0.003772668 -0.008518714 0.0079532955 -0.0048361127 0.008438283 0.005270068 -0.0065578814 0.0039592343 0.005482614 -0.007444929 -0.0074228924 -0.002492343 -0.008628872 -0.0015748737 -0.00038757667 0.0032959366 0.0014325404 -0.00088083016 -0.005591098 0.0017297626 -0.00089552783 0.0068030986 0.0039881677 0.004533183 0.0014284542 -0.0027126821 -0.0043595196 -0.0010315293 0.0014437438 -0.0026617546 -0.0070882514 -0.007825746 -0.009136036 -0.005931676 -0.001850123 -0.004323682 -0.0064626597 -0.0037265678 0.004296681 -0.0037233941 0.008404572 0.001539496 -0.007246572 0.009443451 0.007636867 0.0055208146 -0.0068550883 0.0058190743 0.004034045 0.005188155 0.0042629624 0.0019477821 -0.003167882 0.008342064 0.009619138 0.0038047181 -0.0028461283 5.6938893e-07 0.0012001555 -0.0084682545 -0.008234347 -0.00023238244 0.0012304098 -0.005750644 -0.0047139754 -0.0073490315 0.008316314 0.00010242269 -0.004513882 0.005704978 0.009199796 -0.004097329 0.007985275 0.005386452 0.0058861696 0.0005043713 0.008208188 -0.0070221694
in -0.008226077 0.009303831 -0.00018710589 -0.0019704443 0.0046143015 -0.004104392 0.0027394402 0.006979235 0.0060486975 -0.0075411424 0.00939576 0.00465202 0.004012172 -0.006245291 0.008499353 -0.002164537 0.008836197 -0.005347778 -0.008136817 0.006804632 0.0016640095 -0.0022142953 0.009522269 0.009494823 -0.0097868545 0.0025105644 0.0061560757 0.0038842657 0.0020310257 0.00043876152 0.00068163266 -0.0038464246 -0.007141551 -0.0020813115 0.003930752 0.008838634 0.009274302 -0.0059668766 -0.009419525 0.009759848 0.0034291998 0.005158939 0.006265811 -0.0027623416 0.007310359 0.0027998323 0.0028576967 -0.0023982434 -0.003139742 -0.0023701421 0.0042809984 4.8589092e-05 -0.009614385 -0.00968607 -0.006160773 -0.00011437661 0.0019819876 0.009428 0.0056011924 -0.004298171 0.00026028603 0.004974084 0.007744428 -0.001135339 0.004278759 -0.0057750097 -0.0008068469 0.00811882 -0.002369315 -0.009674972 0.0058119837 -0.0039038642 -0.001220125 0.010017389 -0.002241946 -0.0047185957 -0.0053141676 0.0069846674 -0.005741993 0.002120917 -0.0052751247 0.00613608 0.0043662013 0.0026298608 -0.0015129133 -0.002735619 0.008999614 0.0052172863 -0.0021470466 -0.009465257 -0.007413552 -0.0010587372 -0.00078251073 -0.0025414668 0.009710779 -0.00044944565 0.005915 -0.007467981 -0.0024928953 -0.005583053
european -0.007147033 0.0012623417 -0.007189088 -0.0022513974 0.0037773554 0.005857864 0.0012027922 0.0021598793 -0.004109796 0.007198152 -0.006319537 0.0046250015 -0.008186181 0.0020334523 -0.0049318667 -0.0042960607 -0.0030848773 0.0056965156 0.0057683894 -0.004991361 0.00076802005 -0.008515792 0.0078122346 0.009295911 -0.002746969 0.0008081935 0.0007694419 0.00550255 -0.008630911 0.0006062931 0.0068933573 0.0021813295 0.0010798875 -0.009366349 0.008471645 -0.006258249 -0.0029761735 0.0035168754 -0.00078163494 0.0014152499 0.0017921324 -0.006839617 -0.009737293 0.009092817 0.0062128166 -0.00694695 0.0033956417 0.00017217748 0.004755041 -0.0071203653 0.004067516 0.004303939 0.009927 -0.0045391554 -0.0014395243 -0.0073114103 -0.009704934 -0.009090646 -0.0010375449 -0.0065315044 0.0048550633 -0.006148244 0.0026037877 0.000752482 -0.0034296552 -0.00092229253 0.010017935 0.009206015 -0.004494388 0.009070265 -0.0055859834 0.0059493524 -0.0030818144 0.0034673577 0.003029479 0.0069394265 -0.0023470228 0.008820008 0.0075530927 -0.009551933 -0.008064042 -0.007652859 0.0029148757 -0.0027951996 -0.00694831 -0.008136711 0.008356287 0.0019903474 -0.00933717 -0.004817203 0.0031394493 -0.0046995636 0.005327329 -0.0042287502 0.0027155946 -0.008033582 0.0062630265 0.0047997306 0.00079031993 0.0029888113
common -0.008722234 0.0021272295 -0.0008539916 -0.009321866 -0.0094246445 -0.001412531 0.0044288053 0.00372704 -0.006505282 -0.006894708 -0.0049991854 -0.0023061878 -0.007229156 -0.009607243 -0.0027377736 -0.008360431 -0.0060269493 -0.005675304 -0.00234906 -0.0017278373 -0.008954683 -0.000731004 0.008155364 0.007693106 -0.007208155 -0.003644954 0.0031189725 -0.009568674 0.0014795078 0.0065395026 0.0057490384 -0.008770905 -0.0045228535 -0.008156553 4.5400484e-05 0.00927559 0.005980464 0.0050585535 0.0050439127 -0.0032448657 0.009562716 -0.0073605715 -0.0072781076 -0.002255642 -0.00077679846 -0.0032283778 -0.00060498127 0.007476424 -0.00070291053 -0.0016193221 0.002749461 -0.008367007 0.0078366995 0.008528508 -0.009591924 0.0024459555 0.009891981 -0.007673955 -0.006969234 -0.0077365288 0.008389148 -0.00067644875 0.009162579 -0.008137346 0.0037369097 0.0026538277 0.0007320811 0.002340243 -0.007473436 -0.009367513 0.0023810826 0.0061679846 0.007993824 0.005740968 -0.00078188477 0.008307063 -0.009312772 0.0033975116 0.00027130058 0.003872196 0.007375048 -0.0067289495 0.005584901 -0.0095183 -0.0008194822 -0.008691651 -0.0050952802 0.009296191 -0.0018460032 0.0029113942 0.009088126 0.008946764 -0.008196811 -0.0030016953 0.009896215 0.005113277 -0.0015862831 -0.008699891 0.0029696936 -0.0066840183
sequence 0.008134779 -0.0044588344 -0.0010699655 0.001010431 -0.00018677961 0.0011458534 0.0061133304 -1.2402037e-05 -0.0032534893 -0.0015101052 0.0058955555 0.0015073137 -0.0007181427 0.009341042 -0.004917502 -0.0008413052 0.009177319 0.0067567485 0.0015022643 -0.0088886535 0.0011522508 -0.0022903979 0.009365224 0.0012041465 0.0014943897 0.0024040388 -0.0018358674 -0.004996856 0.00023002276 -0.0020175653 0.0066060103 0.008935089 -0.0006746635 0.0029776676 -0.0061099143 0.0017025766 -0.006924371 -0.008690522 -0.005899618 -0.008961226 0.0072769034 -0.005776607 0.00827455 -0.007233702 0.003422895 0.009676102 -0.0077943387 -0.009949275 -0.0043248134 -0.0026828882 -0.0002740396 -0.008833413 -0.008620106 0.0027985822 -0.008205106 -0.009067738 -0.0023404285 -0.00863584 -0.007056119 -0.008398832 -0.0003011976 -0.0045611723 0.006630901 0.0015288803 -0.0033471577 0.006116343 -0.0060124504 -0.004648673 -0.0072044823 -0.0043340866 -0.0018032556 0.00649206 -0.0027680297 0.004921421 0.006912646 -0.007459126 0.004573438 0.006129695 -0.002956148 0.0066218316 0.006121442 -0.0064460207 -0.0067676785 0.002543585 -0.0016248615 -0.006062931 0.009498339 -0.005135456 -0.006549685 -0.000118091535 -0.002699267 0.00044816377 -0.0035289875 -0.00041692218 -0.00070437486 0.00083035015 0.0081978375 -0.005737508 -0.0016556873 0.005569238
bru18 0.008155276 -0.0044185193 0.008987652 0.008259665 -0.0044238693 0.00031090993 0.004277394 -0.0039252234 -0.0055654007 -0.006509729 -0.0006656875 -0.00030213682 0.004489389 -0.0024855223 -0.00015437756 0.0024471143 0.0048732683 -2.8606542e-05 -0.0063628056 -0.009279111 1.8654398e-05 0.006667726 0.0014650559 -0.0089674555 -0.007945727 0.006548857 -0.0037690091 0.006254232 -0.0067004655 0.008482541 -0.0065189763 0.0032740948 -0.001067833 -0.0067885593 -0.0032949874 -0.0011434925 -0.005471747 -0.001204045 -0.0075744605 0.0026601462 0.009080238 -0.0023750134 -0.0009867329 0.0035252234 0.008680149 -0.0059299506 -0.006889695 -0.002942458 0.00913801 0.0008666254 -0.008663911 -0.001442217 0.009477263 -0.0075691855 -0.0053729587 0.009308613 -0.008970956 0.0038234547 0.00065334333 0.0066515543 0.008311967 -0.002862157 -0.003982641 0.008891435 0.0020839446 0.0062542376 -0.009450494 0.0095988605 -0.0013514485 -0.006062315 0.0029950105 -0.0004512243 0.0047055846 -0.0022705523 -0.004145877 0.0022992992 0.008370594 -0.004990823 0.0026696166 -0.00798221 -0.0067810714 -0.000469271 -0.008768882 0.0027844147 0.0015907697 -0.0023179457 0.005011737 0.009743466 0.008472866 -0.001870301 0.0020416898 -0.0039901678 -0.008234559 0.0062697986 -0.0019247098 -0.00066059735 -0.0017619281 -0.004536765 0.004069 -0.0042896206
bru50 -0.009579504 0.008948466 0.0041579367 0.00923892 0.006649052 0.0029269105 0.009801864 -0.0044190143 -0.0068119396 0.004226486 0.0037328962 -0.005664456 0.009715384 -0.0035591167 0.009558758 0.00083636935 -0.006334789 -0.0019748765 -0.007390546 -0.002990235 0.0010405012 0.009480547 0.009361016 -0.0065955063 0.0034724285 0.0022746115 -0.0024764987 -0.009228658 0.0010185506 -0.008164371 0.0063289437 -0.0058100903 0.005530614 0.009826734 -0.00015984276 0.0045368825 -0.0018012718 0.0073676347 0.0039300686 -0.0090082595 -0.0023973046 0.0036249864 -0.00010732573 -0.0011888575 -0.0010430571 -0.0016724848 0.00059902505 0.0041630277 -0.004250072 -0.0038341933 -5.2427928e-05 0.00026678806 -0.00017553278 -0.0047934647 0.0043008197 -0.002173452 0.0020970574 0.00065915886 0.005959963 -0.0068526124 -0.00680708 -0.004473089 0.009448878 -0.001590459 -0.009438289 -0.000534792 -0.0044530216 0.0060103727 -0.009585406 0.002857136 -0.009246552 0.001258808 0.0059965253 0.0074065947 -0.007623657 -0.0060443347 -0.006831209 -0.007910946 -0.009496376 -0.0021281417 -0.0008362788 -0.007265241 0.0067816544 0.0011141741 0.0058228294 0.0014675015 0.00078702695 -0.007366497 -0.0021715113 0.0043177926 -0.005089294 0.001137756 0.0028883398 -0.0015285894 0.009943532 0.008348668 0.0024183327 0.007110643 0.005890512 -0.005592114
vietnam -0.005153963 -0.0066644135 -0.007776157 0.0083126435 -0.0019782323 -0.006856599 -0.004155673 0.0051580225 -0.0028790692 -0.0037560624 0.0016262402 -0.00278304 -0.001570952 0.0010760438 -0.002967586 0.008515032 0.003917556 -0.009953211 0.0062494674 -0.0067655 0.00076895714 0.0043992978 -0.005096968 -0.0021128112 0.00809259 -0.0042428537 -0.0076304777 0.009258844 -0.0021577128 -0.004717085 0.008580298 0.004269408 0.004324098 0.009280228 -0.008452614 0.0052631963 0.0020472223 0.004193831 0.0016919046 0.004460046 0.0044873925 0.0060984488 -0.0032084621 -0.0045590503 -0.0004232687 0.002529075 -0.0032731881 0.006051339 0.0041546253 0.00776509 0.002568826 0.008108382 -0.0013972289 0.008070817 0.003707151 -0.008045609 -0.00393531 -0.0024772724 0.004889826 -0.00087688275 -0.00282919 0.007839672 0.009338199 -0.0016121961 -0.0051723607 -0.0046861414 -0.0048465827 -0.0095901145 0.0013706182 -0.0042283125 0.002539541 0.0056244545 -0.00406352 -0.009583576 0.0015531465 -0.006689678 0.0025049727 -0.0037749638 0.007073151 0.00063951715 0.0035553342 -0.0027433916 -0.001711565 0.007655947 0.0014000075 -0.005851 -0.007834303 0.0012315387 0.006458937 0.0055561876 -0.00897213 0.008598417 0.0040550055 0.007476387 0.00975736 -0.007282407 -0.009030263 0.0058277464 0.009392481 0.0034955258
sample 0.007100903 -0.0015709094 0.007947078 -0.00948947 -0.00802812 -0.006650821 -0.004002562 0.00500194 -0.0038224515 -0.008330948 0.00841617 -0.0037529538 0.008619977 -0.004892141 0.003931126 0.004920354 0.0023956115 -0.0028135795 0.0028564015 -0.008257614 -0.0027645228 -0.0026008752 0.007249391 -0.0034709626 -0.0066022277 0.0043369113 -0.0004823991 -0.0035912786 0.006893536 0.003869671 -0.0038965137 0.0007677057 0.009145668 0.0077625574 0.0063656354 0.004670941 0.0023901698 -0.0018358309 -0.006370667 -0.00030689163 -0.0015674513 -0.00057719386 -0.0062623145 0.0074473424 -0.0066001806 -0.007243944 -0.0027626618 -0.0015170419 -0.007635178 0.0006969715 -0.005330137 -0.0012829994 -0.007370956 0.0019601034 0.003276234 -1.4737604e-05 -0.005451358 -0.001723771 0.00709824 0.003738 -0.008888436 -0.0034084066 0.0023648455 0.0021412992 -0.009477984 0.004583573 -0.008656226 -0.007383396 0.0034825006 -0.0034719554 0.0035707187 0.008896884 -0.003571185 0.009332037 0.0017215977 0.009857596 0.005704204 -0.009146731 -0.0033407472 0.0065290304 0.0055978918 0.008714949 0.0069304765 0.008049887 -0.009821734 0.004303451 -0.0050309277 0.0035138857 0.0060621244 0.0043927776 0.007520648 0.0014953684 -0.0012639741 0.0057787485 -0.0056348047 4.0551466e-05 0.009468461 -0.005486985 0.0038199269 -0.008121091
collected 0.0097750295 0.008170629 0.0012814446 0.0051154387 0.0014172737 -0.006454876 -0.0014259414 0.0064561926 -0.004619688 -0.0039992593 0.004923175 0.0027045405 -0.0018415204 -0.0028716852 0.006021755 -0.005721393 -0.003250512 -0.0064803455 -0.0042360183 -0.008592084 -0.004467861 -0.008505252 0.0013975133 -0.008609542 -0.009919709 -0.008202052 -0.0067797694 0.006683116 0.0037784956 0.0003495915 -0.002959815 -0.007438984 0.0005348175 0.0005005026 0.00019596443 0.0008583165 0.00078985846 -5.4285138e-05 -0.008013045 -0.005872034 -0.00837931 -0.0013207265 0.0018039295 0.0074345516 -0.001966708 -0.0023440684 0.009481904 7.425008e-05 -0.0023982543 0.008607863 0.0026964454 -0.0053582233 0.0065950346 0.0045082304 -0.0070585674 -0.00031050213 0.00083163293 0.005739447 -0.0017207591 -0.0028131874 0.0017429565 0.00085032795 0.0012085037 -0.002637083 -0.0060016937 0.007339091 0.0075857476 0.00830421 -0.008602928 0.0026385786 -0.0035621128 0.0096288975 0.0029010975 0.004643974 0.0023910597 0.006626162 -0.005746352 0.007899223 -0.0024186398 -0.0045691207 -0.0020768652 0.009735589 -0.0068560173 -0.0021970137 0.006994984 -4.366915e-05 -0.0062879827 -0.006398747 0.008941079 0.0064397687 0.004773856 -0.003261329 -0.009269935 0.0038002136 0.0071752095 -0.0056398017 -0.007860231 -0.0029721109 -0.0049388385 -0.0023143636
europe -0.0019466967 -0.005264445 0.009446078 -0.009301849 0.00450806 0.005410841 -0.0014122794 0.009008321 0.009883694 -0.0054709506 -0.0060238987 -0.006749262 -0.007891144 -0.0030501 -0.00559189 -0.008350158 0.000785714 0.002999436 0.0064088805 -0.0026336086 -0.0044599404 0.0012484614 0.00038998463 0.008114584 0.00018636887 0.0072303875 -0.008259172 0.008436813 -0.0018950498 0.008705898 -0.007616939 0.0017924334 0.0010528992 4.4615095e-05 -0.005109563 -0.009249746 -0.0072665187 -0.007951877 0.0019136231 0.00048003704 -0.0018163731 0.007123826 -0.0024782037 -0.0013449806 -0.008898934 -0.0099250255 0.008953352 -0.0057566464 -0.006378906 0.0052002883 0.0066733453 -0.0068328637 0.000956345 -0.0060142023 0.0016413335 -0.004295812 -0.0034417375 0.0021831726 0.008657248 0.0067267795 -0.00967649 -0.0056275628 0.007884859 0.0019889344 -0.0042598336 0.0006024022 0.009526292 -0.0011015745 -0.009430234 0.0016114928 0.0062343916 0.00628738 0.0040935944 -0.0056507527 -0.000374705 -4.9610684e-05 0.004579015 -0.0080420235 -0.008019654 0.0002663556 -0.008607854 0.005816331 -0.00042231655 0.00997148 -0.0053460747 -0.00048954826 0.0077552027 -0.004073562 -0.0050113807 0.0015921831 0.0026467363 -0.0025611357 0.006453244 -0.0076659652 0.003398472 0.00049256504 0.008736541 0.0059848153 0.006820848 0.007819741
ancient -0.00949331 0.009558393 -0.0077741044 -0.0026378995 -0.0048897555 -0.0049655624 -0.008022211 -0.007766241 -0.0045622233 -0.0012816157 -0.0051147 0.0061208857 -0.009519694 -0.005296118 0.009434444 0.0069931676 0.0076746074 0.0042455657 0.0005105317 -0.0060022003 0.006030395 0.002638317 0.007692142 0.0063923756 0.0079497155 0.008663229 -0.009898174 -0.006753931 0.0013303582 0.0064388 0.0073839277 0.0055065546 0.007657052 -0.0051452103 0.006578382 -0.004109781 -0.009049926 0.009156881 0.0013312489 -0.0027684697 -0.0024686211 -0.004237798 0.004802247 0.00442113 -0.0026455545 -0.0073452652 -0.0035828727 -0.00034474322 0.006112652 -0.0028318586 -0.00011603545 0.0008713841 -0.007088451 0.0020616641 -0.0014378024 0.0028043352 0.0048393123 -0.0013679614 -0.0027919079 0.0077378284 0.005049118 0.006718327 0.0045309924 0.00867961 0.0074680797 -0.0010581953 0.008750674 0.0046186065 0.0054406407 -0.0013790869 -0.0020325198 -0.0044157715 -0.008505952 0.0030342783 0.008892043 0.0089222565 -0.0019243953 0.0060931933 0.0037896668 -0.0043041655 0.002026212 -0.005454141 0.008199508 0.005422219 0.003183278 0.0041012214 0.008660769 0.007268954 -0.0008326238 -0.0070764753 0.008396081 0.0072427383 0.0017482204 -0.0013339228 -0.0058783586 -0.004530154 0.008643081 -0.003131084 -0.006341318 0.009878559
neanderthal 0.007692736 0.009126856 0.001134214 -0.008323363 0.008438394 -0.0036978398 0.005743373 0.0044079996 0.0096743805 -0.009301011 0.009201668 -0.009297726 -0.0068989955 -0.009099583 -0.0055382987 0.0073707746 0.009167804 -0.0033190295 0.0037136457 -0.0036417823 0.007886165 0.0058672884 4.5112392e-06 -0.0036315187 -0.0072244583 0.0047761244 0.0014634884 -0.002615084 0.007832942 -0.004045295 -0.00913638 -0.0022702827 0.00011177889 -0.006659164 -0.0054871286 -0.008484606 0.00924395 0.0074312175 -0.00030530593 0.0073675984 0.0079630045 -0.0007988404 0.0066030715 0.0037836921 0.0050928146 0.0072574555 -0.004751798 -0.0021930316 0.00087973 0.0042327694 0.0033078827 0.0050869007 0.004582786 -0.008444151 -0.0031969673 -0.007233252 0.009679768 0.0049946425 0.0001599608 0.0041068383 -0.0076482734 -0.0062929546 0.003092239 0.006544919 0.0039503933 0.006035828 -0.0019895614 -0.0033235473 0.00020525315 -0.0031931365 -0.005507259 -0.0077802544 0.0065467777 -0.0010795805 -0.0018928167 -0.007799526 0.009349405 0.00087477046 0.0017788016 0.0024914553 -0.0073950374 0.0016234348 0.0029714536 -0.008580277 0.0049522887 0.0024255016 0.0074964412 0.0050449395 -0.0030210917 -0.0071717766 0.007105708 0.0019140064 0.005210298 0.0063858717 0.0019259832 -0.0061174775 -5.528207e-06 0.008260976 -0.0060965912 0.009431074
modern -0.0071792696 0.0042354544 0.00216289 0.007438057 -0.0048900596 -0.0045788498 -0.0060949842 0.0033097882 -0.004507435 0.008506253 -0.0042799306 -0.009108578 -0.0047961376 0.0064152437 -0.006351414 -0.0052630682 -0.007296127 0.006024725 0.003365447 0.0028487756 -0.0031356772 0.00602019 -0.0061529716 -0.001984372 -0.0059886468 -0.0009987217 -0.0020279228 0.008489572 9.179515e-05 -0.0085772425 -0.0054273363 -0.0068765874 0.0026914866 0.00946441 -0.0058075436 0.008274624 0.008538083 -0.007054826 -0.008883825 0.009470304 0.008378029 -0.0046964334 -0.0067229234 0.007853816 0.003754884 0.008087255 -0.0075793806 -0.009526273 0.0015759452 -0.009809055 -0.004886255 -0.003462314 0.009610498 0.008620381 -0.002831389 0.005837147 0.008235405 -0.002257783 0.009542199 0.0071611865 0.0020309114 -0.0038430467 -0.005072538 -0.00304804 0.007877576 -0.0061799455 -0.0029184332 0.009190523 0.003460949 0.0060627563 -0.008025261 -0.00075433304 0.0055211782 -0.0046972577 0.0074892025 0.009333807 -0.00041072394 -0.0020574103 -0.00060545607 -0.0057792794 -0.0083910655 -0.0014910942 -0.0025447267 0.0043934747 -0.006866489 0.00542165 -0.006739068 -0.0078106844 0.008480591 0.008917766 -0.0034737175 0.0034897032 -0.005797486 -0.008738294 -0.0055089584 0.0067478465 0.0064329007 0.009427363 0.007059985 0.0067415633
human 0.0013073076 -0.009817197 0.0046000797 -0.00054215814 0.0063516907 0.0017917434 -0.0031376705 0.00779152 0.0015605913 4.5087592e-05 -0.004629277 -0.008477088 -0.0077653346 0.00868444 -0.0089293 0.009021215 -0.009282701 -0.00026340262 -0.0019013402 -0.008945062 0.008634705 0.006775237 0.0030073978 0.00484689 0.000119797296 0.009438227 0.007017406 -0.009846283 -0.0044378787 -0.0012810889 0.0030511408 -0.0043373024 0.0014413317 -0.007862512 0.002772104 0.0047001 0.004937028 -0.0031820575 -0.008430869 -0.009233454 -0.00072350266 -0.007335406 -0.0068239835 0.006137866 0.0071648457 0.0021028868 -0.00790615 -0.0057202103 0.008053211 0.0039317366 -0.0052275606 -0.007412702 0.00076265965 0.0034572822 0.002076003 0.0031028383 -0.0056280685 -0.0099016195 -0.0070258062 0.00023322599 0.0046109683 0.004535595 0.0018992841 0.0051839855 -0.000116945404 0.004136494 -0.009110944 0.0077172276 0.0061438708 0.0051303217 0.0072363587 0.0084579345 0.00074768433 -0.0017087719 0.0005303956 -0.009314834 0.008429295 -0.0063797934 0.008425091 -0.0042409054 0.0006248087 -0.009168093 -0.009569658 -0.007833339 -0.0077458574 0.00037962993 -0.0072201644 -0.004963075 -0.0052754995 -0.004289475 0.0070301695 0.004834569 0.008708495 0.0070971223 -0.0056847483 0.007253502 -0.009290819 -0.0025857396 -0.007757146 0.0042008474
genome 0.0018013249 0.0070483726 0.002941503 -0.006984167 0.0077269375 -0.005990631 0.008982948 0.0029859466 -0.0040263417 -0.0046959417 -0.004423949 -0.006166649 0.009397486 -0.0026410713 0.00779025 -0.009682492 0.0021134273 -0.001217051 0.007545118 -0.009060286 0.007431912 -0.005112224 -0.006022511 -0.0056468663 -0.0033655176 -0.0034046597 -0.0031906026 -0.007475777 0.0007148267 -0.0005725245 -0.0016790004 0.0037438255 -0.00763313 -0.0032234066 0.00514847 0.00855509 -0.009791086 0.0071872775 0.0052953 -0.003874173 0.008570203 -0.009222292 0.0072385296 0.0053781155 0.0012898272 -0.0051951176 -0.004179599 -0.003369767 0.0015944163 0.001581598 0.007396833 0.0099602975 0.008836587 -0.004008733 0.009636086 -0.00063042255 0.0048575792 0.0025363516 -0.0006256454 0.0036644523 -0.005330011 -0.0057551167 -0.007577021 0.0019176035 0.006513916 0.00090115983 0.0012633507 0.0031810037 0.008123854 -0.007687061 0.0022752027 -0.007455608 0.003715618 0.009514587 0.0075186947 0.006441567 0.008026117 0.006552105 0.0068467325 0.00869257 -0.0049556913 0.009209661 0.0050575286 -0.0021248695 0.008474546 0.005080482 0.009641399 0.0028190457 0.009884555 0.001195692 0.009130684 0.0035973836 0.006580412 -0.00361116 0.0068057566 0.007250423 -0.002115621 -0.0018615718 0.003625693 -0.0070385
shows 0.009741375 -0.009785563 -0.006502033 0.0027767855 0.0064354893 -0.005370729 0.0027519849 0.009131747 -0.006819064 -0.0061066505 -0.0049928115 -0.00368126 0.0018522884 0.009683641 0.00644354 0.00039165124 0.0024744181 0.00844649 0.009138178 0.005629969 0.005943013 -0.007629522 -0.0038295696 -0.005683565 0.0061836103 -0.00225932 -0.008786562 0.0076284255 0.008406309 -0.0033179314 0.009119112 -0.00073907804 -0.0036286868 -0.0003802314 0.00019241076 -0.0035078088 0.0028134247 0.005731432 0.006873956 -0.008905951 -0.0021951643 -0.0054816343 0.0075234827 0.0065075015 -0.0043688817 0.002324414 -0.0059516523 0.00023538349 0.00945961 -0.0026105444 -0.0051873005 -0.0074033006 -0.0029152564 -0.0008664178 0.0035291065 0.009743326 -0.0033921245 0.001903681 0.009692432 0.0015337794 0.0009810732 0.009802843 0.00930645 0.007710903 -0.006179333 0.009991138 0.005857104 0.009073708 -0.002001237 0.0033512171 0.0068392376 -0.0038913293 0.006648019 0.0025668114 0.009319553 -0.0030298685 -0.0031094935 0.0062168743 -0.00908894 -0.0072543155 -0.006503641 -0.00074380165 -0.002362113 0.0068256087 0.009239293 -0.00091146474 0.0014132133 0.002020571 -0.0020174456 -0.008035576 0.007445874 -0.004299319 0.004580612 0.009090945 0.0030486963 0.00313993 0.0040727276 -0.0027017219 0.0038345656 0.00033530922
variation 0.005626712 0.005497371 0.0018291199 0.0057494068 -0.008968078 0.0065593575 0.009225992 -0.0042071473 0.0016075504 -0.0052338815 0.0010582185 0.0027701687 0.008160736 0.00054401276 0.0025570584 0.001297735 0.008402523 -0.0057077026 -0.00626183 -0.0036275184 -0.0023005498 0.005041063 -0.008120357 -0.0028335357 -0.008197427 0.00514971 -0.0025680638 -0.009067107 0.0040717293 0.009017323 -0.0030376601 -0.0058385395 0.0030198884 -0.00043584823 -0.009979436 0.008417704 -0.0073388875 -0.004930407 -0.002657081 -0.0054523144 0.00171651 0.009712814 0.0045722723 0.008088603 -0.00047045827 0.0006449234 -0.002668352 -0.008779561 0.0034313034 0.0020933736 -0.009421854 -0.004968437 -0.009734099 -0.0057197916 0.0040645422 0.008642861 0.00411165 0.0023884643 0.008144778 -0.0011192096 -0.0013977134 -0.008746823 -0.00012579202 -0.0025675725 0.00038607715 0.007279662 -0.0070414604 -0.0039464748 -0.0066646053 -0.0035441148 -0.0033158315 0.002137121 0.0033281683 -0.004957187 -0.0045462907 0.0011386942 0.0054534827 0.0053736498 -0.0029685367 -0.0042665256 -0.005616647 -0.00054498314 0.001946373 0.0015253461 0.0073525296 -0.0027333724 -6.592393e-05 -0.0055276332 -0.0011700654 -0.0077119637 -0.0009593296 0.0013096749 -0.008594744 0.0087485835 -0.009207866 -0.009624677 -0.008511624 0.0073132683 0.0054655685 0.009249462
haplogroup 0.0025659278 0.00085168 -0.0025371916 0.00934742 0.0028080416 0.0041162586 -0.0011815964 0.00096541416 0.0066110776 -0.00074895076 0.0033208325 -0.00070219487 0.0052740807 0.003645613 0.0026175152 -0.0053456044 -0.004693721 0.004352339 -0.0059164464 -0.00020070269 -0.0006396672 0.0034715144 -0.008427317 0.0088428045 -0.0014485243 -0.005307692 0.0040584584 -0.001898596 -0.007778139 -0.0044734394 -0.0003679351 -0.0089815045 0.0005416724 0.002407686 -0.003227299 0.0025667753 0.0024930644 0.009990179 0.0014140693 0.0020159276 0.0027784512 -0.0020868885 -0.008718105 0.008073382 -0.0019698895 -0.009723993 -0.006550278 -0.0039781313 0.003948964 0.0050270366 0.0061098747 -0.006815141 0.00066107995 -0.0028290635 -0.0052407067 0.006984182 0.0039222264 -0.003121762 -0.008263934 -0.0051569464 -0.00065567193 0.0078113875 0.006122021 -0.008424067 -0.0096058855 0.0071855173 -0.0022900787 -0.0036282074 0.005704672 -0.0058300486 0.005136189 -0.00020829153 -0.0068513798 -0.00030139415 0.006364283 0.009325248 0.0022419153 0.0050703404 -0.0050120936 -0.0008110871 -0.005373588 0.0011743606 -0.0017981603 -0.0036161384 -0.0070382343 0.009639485 0.003012655 -0.0022897385 -0.0041911877 0.0076894285 -0.0064663296 0.0031200873 0.0008309826 0.008321212 0.0068888706 -0.0028947534 0.002593874 -0.0016730811 -0.009431767 -0.0026270088
h 0.0013225824 0.0065497826 0.009982806 0.009062454 -0.0079781795 0.0065080435 -0.0057147983 -0.0009299061 0.00047654507 0.0065626903 0.0044563343 0.0045750956 0.0095022535 0.00038496728 -0.0060190535 -0.006347197 0.0064362343 -0.005219293 -0.002869563 0.004042792 -0.002286449 -0.006022882 -0.0023193487 0.0012384101 0.0021826315 0.0061027543 -0.005193723 0.003081824 0.0072158594 0.0022087328 0.0054155486 -0.004879429 0.0061283903 -0.007640156 0.0034881763 -0.009306421 -0.0025874602 -0.00905658 -0.0016061858 -0.005364485 -0.0039271545 0.0011356737 0.002771372 -0.0014860439 -0.008151553 -0.0059441784 0.00080055697 -0.0039708167 -0.009422841 -0.0007733177 0.0066586556 0.005949332 -0.0099333245 0.0030846666 -0.006018299 -0.009179041 0.00015740465 -0.0003979007 -0.006993792 -0.0063003623 -0.0024212876 0.0071041975 -0.0074873487 0.0077126683 -0.000499351 0.001135528 0.009489626 0.0047690077 -0.0035878688 0.00373115 0.0035563034 0.0063642766 7.750339e-05 -0.0044055916 0.001321394 -0.005388977 0.0014417345 0.004943775 0.0051506218 0.009180272 -0.0075472356 -0.005428668 0.0064623333 0.0013423576 -0.0066391225 0.0008783591 0.0027003903 -0.0025289776 -0.004963421 0.0049924683 0.009631416 -0.0073435763 -7.912599e-05 -0.0025523733 -0.0063192695 -0.001368983 -0.005227159 0.009048553 -0.005790704 0.003674939
is -0.00023357147 0.004226683 0.0021067455 0.009996419 0.0006458492 -0.005461563 -0.0011838758 0.0020920378 -0.0033855627 -0.007853136 -0.005604329 -0.0067612384 0.006366702 0.0039265845 0.008232181 0.0065088123 -0.0061183744 0.002733512 0.008466464 0.0015833755 0.0030677342 0.0058010546 -0.008839754 0.009125629 0.0068226005 0.008512217 -0.0082233 0.0061861346 0.006626654 -0.0013528146 -0.0062799496 0.0053081806 -0.006868758 -0.005337174 0.0035091531 0.008081314 0.008700704 -0.0043939846 -0.0091931205 0.009603682 0.006290027 -0.0039766026 -0.008465367 -0.004691139 -0.0039542373 -0.0032808431 0.0008109401 -0.00030902817 -0.0031103012 -0.005998526 0.009428418 -0.004739384 -0.007274209 0.0076703983 0.0025008747 0.0086274175 -0.004468981 -0.0069012893 0.0009802914 -0.0011801491 -0.009394523 -0.0015968346 0.0030780574 0.006576642 0.0068287384 0.0032347892 -0.0044282703 -0.0018157784 -0.0039494233 0.0057785274 -0.006343468 0.002114367 -0.0013383601 -0.0057999003 -0.007236314 0.0058711045 -0.008345587 -0.00067066104 0.0028193784 0.00773521 -0.007315293 0.003294973 0.009805078 -0.0069755646 -0.003540081 0.005130921 0.005245436 0.0016209023 0.00797557 0.00082546985 0.0018813204 -0.0015988776 -0.008149317 0.0032639706 0.0019852505 -0.008730082 -0.0006569945 7.3046285e-05 -2.6318648e-06 0.008703764
mitochondrial -0.002508221 -0.0059015388 0.007485539 -0.007257687 -0.008965709 -0.0017888069 -0.008367486 0.00039139786 0.0019467709 -0.0024699308 -0.00644677 -0.00032192905 -0.0010975264 0.0034935323 0.008127049 0.0058537317 0.008440359 -0.0089677265 0.00944024 -0.002368706 0.008696626 0.0023858226 0.0035850583 -0.0095805535 -0.009488111 0.008984071 -0.002896514 0.0028174375 0.0064166263 -0.00029972216 0.00971954 -0.0010352092 -0.009671927 -0.0070548807 -0.0010439103 -0.008674508 0.0074211163 0.0036188734 -0.00874913 0.008480371 0.008929614 0.0058477637 0.0069070626 -0.009568968 0.0004927428 -0.009223568 -0.0036663204 0.00025142074 -0.0002807199 0.0014672013 0.0032786338 0.0021258853 0.005320648 0.0075189634 -0.005886681 0.007957336 0.005991082 0.009785411 0.0046226517 -0.0033269909 -0.0037473391 -0.00062982703 -0.0016548736 0.009871284 0.0011211695 0.00400867 0.0034179776 -0.008850507 0.006720342 0.008190563 -0.0016650181 0.0023356378 -0.0064802184 -0.006126035 0.0082164975 -0.0030429186 0.0067422306 0.001552869 -0.0019822652 0.0030546081 -0.004023311 -0.0017839139 0.0013798403 0.004887597 -0.0014078929 0.0006583137 -0.007930928 0.00949345 -0.008762073 0.007072499 0.0039040898 -0.0069980817 -0.005295161 -0.007937933 -0.0051285303 0.00707022 0.009641066 0.0021544741 0.0006394228 0.009524309
